digraph Tree {
node [shape=box, style="filled", color="black"] ;
graph [ranksep=equally, splines=polyline] ;
0 [label="sepalwid <= 0.5\ngini = 0.5097\nsamples = 1045\nvalue = [28, 602, 415]\nclass = versicolor", fillcolor="#39e5814c"] ;
1 [label="petallen <= 9.5\ngini = 0.3616\nsamples = 657\nvalue = [18, 508, 131]\nclass = versicolor", fillcolor="#39e581b7"] ;
0 -> 1 [labeldistance=2.5, labelangle=45, headlabel="True"] ;
2 [label="sepallen <= 2.5\ngini = 0.5365\nsamples = 43\nvalue = [2, 18, 23]\nclass = virginica", fillcolor="#8139e533"] ;
1 -> 2 ;
3 [label="petalwid <= 143.025\ngini = 0.2449\nsamples = 14\nvalue = [2, 0, 12]\nclass = virginica", fillcolor="#8139e5d4"] ;
2 -> 3 ;
4 [label="petalwid <= 24.5\ngini = 0.142\nsamples = 13\nvalue = [1, 0, 12]\nclass = virginica", fillcolor="#8139e5ea"] ;
3 -> 4 ;
5 [label="petalwid <= 20.875\ngini = 0.375\nsamples = 4\nvalue = [1, 0, 3]\nclass = virginica", fillcolor="#8139e5aa"] ;
4 -> 5 ;
6 [label="gini = 0.0\nsamples = 3\nvalue = [0, 0, 3]\nclass = virginica", fillcolor="#8139e5ff"] ;
5 -> 6 ;
7 [label="gini = 0.0\nsamples = 1\nvalue = [1, 0, 0]\nclass = setosa", fillcolor="#e58139ff"] ;
5 -> 7 ;
8 [label="gini = 0.0\nsamples = 9\nvalue = [0, 0, 9]\nclass = virginica", fillcolor="#8139e5ff"] ;
4 -> 8 ;
9 [label="gini = 0.0\nsamples = 1\nvalue = [1, 0, 0]\nclass = setosa", fillcolor="#e58139ff"] ;
3 -> 9 ;
10 [label="petalwid <= 20.825\ngini = 0.4709\nsamples = 29\nvalue = [0, 18, 11]\nclass = versicolor", fillcolor="#39e58163"] ;
2 -> 10 ;
11 [label="petallen <= 0.7916\ngini = 0.355\nsamples = 13\nvalue = [0, 3, 10]\nclass = virginica", fillcolor="#8139e5b3"] ;
10 -> 11 ;
12 [label="petalwid <= 11.1458\ngini = 0.4444\nsamples = 3\nvalue = [0, 2, 1]\nclass = versicolor", fillcolor="#39e5817f"] ;
11 -> 12 ;
13 [label="gini = 0.0\nsamples = 1\nvalue = [0, 0, 1]\nclass = virginica", fillcolor="#8139e5ff"] ;
12 -> 13 ;
14 [label="gini = 0.0\nsamples = 2\nvalue = [0, 2, 0]\nclass = versicolor", fillcolor="#39e581ff"] ;
12 -> 14 ;
15 [label="petalwid <= 13.8604\ngini = 0.18\nsamples = 10\nvalue = [0, 1, 9]\nclass = virginica", fillcolor="#8139e5e3"] ;
11 -> 15 ;
16 [label="gini = 0.0\nsamples = 4\nvalue = [0, 0, 4]\nclass = virginica", fillcolor="#8139e5ff"] ;
15 -> 16 ;
17 [label="petalwid <= 15.5729\ngini = 0.2778\nsamples = 6\nvalue = [0, 1, 5]\nclass = virginica", fillcolor="#8139e5cc"] ;
15 -> 17 ;
18 [label="petallen <= 6.5\ngini = 0.5\nsamples = 2\nvalue = [0, 1, 1]\nclass = versicolor", fillcolor="#39e58100"] ;
17 -> 18 ;
19 [label="gini = 0.0\nsamples = 1\nvalue = [0, 1, 0]\nclass = versicolor", fillcolor="#39e581ff"] ;
18 -> 19 ;
20 [label="gini = 0.0\nsamples = 1\nvalue = [0, 0, 1]\nclass = virginica", fillcolor="#8139e5ff"] ;
18 -> 20 ;
21 [label="gini = 0.0\nsamples = 4\nvalue = [0, 0, 4]\nclass = virginica", fillcolor="#8139e5ff"] ;
17 -> 21 ;
22 [label="petallen <= 3.5\ngini = 0.1172\nsamples = 16\nvalue = [0, 15, 1]\nclass = versicolor", fillcolor="#39e581ee"] ;
10 -> 22 ;
23 [label="petallen <= 2.5\ngini = 0.2778\nsamples = 6\nvalue = [0, 5, 1]\nclass = versicolor", fillcolor="#39e581cc"] ;
22 -> 23 ;
24 [label="gini = 0.0\nsamples = 5\nvalue = [0, 5, 0]\nclass = versicolor", fillcolor="#39e581ff"] ;
23 -> 24 ;
25 [label="gini = 0.0\nsamples = 1\nvalue = [0, 0, 1]\nclass = virginica", fillcolor="#8139e5ff"] ;
23 -> 25 ;
26 [label="gini = 0.0\nsamples = 10\nvalue = [0, 10, 0]\nclass = versicolor", fillcolor="#39e581ff"] ;
22 -> 26 ;
27 [label="sepallen <= 1.5\ngini = 0.3315\nsamples = 614\nvalue = [16, 490, 108]\nclass = versicolor", fillcolor="#39e581c1"] ;
1 -> 27 ;
28 [label="petallen <= 54.5\ngini = 0.4776\nsamples = 148\nvalue = [4, 95, 49]\nclass = versicolor", fillcolor="#39e58176"] ;
27 -> 28 ;
29 [label="petalwid <= 26.1437\ngini = 0.5024\nsamples = 120\nvalue = [3, 71, 46]\nclass = versicolor", fillcolor="#39e58156"] ;
28 -> 29 ;
30 [label="petalwid <= 2.5\ngini = 0.314\nsamples = 11\nvalue = [1, 9, 1]\nclass = versicolor", fillcolor="#39e581cc"] ;
29 -> 30 ;
31 [label="petallen <= 44.5\ngini = 0.625\nsamples = 4\nvalue = [1, 2, 1]\nclass = versicolor", fillcolor="#39e58155"] ;
30 -> 31 ;
32 [label="petallen <= 38.5\ngini = 0.4444\nsamples = 3\nvalue = [1, 2, 0]\nclass = versicolor", fillcolor="#39e5817f"] ;
31 -> 32 ;
33 [label="gini = 0.0\nsamples = 1\nvalue = [0, 1, 0]\nclass = versicolor", fillcolor="#39e581ff"] ;
32 -> 33 ;
34 [label="petallen <= 39.5\ngini = 0.5\nsamples = 2\nvalue = [1, 1, 0]\nclass = setosa", fillcolor="#e5813900"] ;
32 -> 34 ;
35 [label="gini = 0.0\nsamples = 1\nvalue = [1, 0, 0]\nclass = setosa", fillcolor="#e58139ff"] ;
34 -> 35 ;
36 [label="gini = 0.0\nsamples = 1\nvalue = [0, 1, 0]\nclass = versicolor", fillcolor="#39e581ff"] ;
34 -> 36 ;
37 [label="gini = 0.0\nsamples = 1\nvalue = [0, 0, 1]\nclass = virginica", fillcolor="#8139e5ff"] ;
31 -> 37 ;
38 [label="gini = 0.0\nsamples = 7\nvalue = [0, 7, 0]\nclass = versicolor", fillcolor="#39e581ff"] ;
30 -> 38 ;
39 [label="petalwid <= 26.4688\ngini = 0.5057\nsamples = 109\nvalue = [2, 62, 45]\nclass = versicolor", fillcolor="#39e58144"] ;
29 -> 39 ;
40 [label="gini = 0.0\nsamples = 4\nvalue = [0, 0, 4]\nclass = virginica", fillcolor="#8139e5ff"] ;
39 -> 40 ;
41 [label="petallen <= 15.0\ngini = 0.4985\nsamples = 105\nvalue = [2, 62, 41]\nclass = versicolor", fillcolor="#39e58154"] ;
39 -> 41 ;
42 [label="gini = 0.0\nsamples = 2\nvalue = [0, 0, 2]\nclass = virginica", fillcolor="#8139e5ff"] ;
41 -> 42 ;
43 [label="petalwid <= 32.5104\ngini = 0.4939\nsamples = 103\nvalue = [2, 62, 39]\nclass = versicolor", fillcolor="#39e5815c"] ;
41 -> 43 ;
44 [label="petallen <= 28.25\ngini = 0.5322\nsamples = 27\nvalue = [1, 12, 14]\nclass = virginica", fillcolor="#8139e522"] ;
43 -> 44 ;
45 [label="gini = 0.0\nsamples = 3\nvalue = [0, 0, 3]\nclass = virginica", fillcolor="#8139e5ff"] ;
44 -> 45 ;
46 [label="gini = 0.5382\nsamples = 24\nvalue = [1, 12, 11]\nclass = versicolor", fillcolor="#39e58114"] ;
44 -> 46 ;
47 [label="petalwid <= 51.9313\ngini = 0.4588\nsamples = 76\nvalue = [1, 50, 25]\nclass = versicolor", fillcolor="#39e5817d"] ;
43 -> 47 ;
48 [label="gini = 0.1327\nsamples = 14\nvalue = [0, 13, 1]\nclass = versicolor", fillcolor="#39e581eb"] ;
47 -> 48 ;
49 [label="gini = 0.4938\nsamples = 62\nvalue = [1, 37, 24]\nclass = versicolor", fillcolor="#39e58157"] ;
47 -> 49 ;
50 [label="petallen <= 75.5\ngini = 0.2526\nsamples = 28\nvalue = [1, 24, 3]\nclass = versicolor", fillcolor="#39e581d6"] ;
28 -> 50 ;
51 [label="petallen <= 70.5\ngini = 0.203\nsamples = 27\nvalue = [1, 24, 2]\nclass = versicolor", fillcolor="#39e581e0"] ;
50 -> 51 ;
52 [label="petallen <= 60.5\ngini = 0.1472\nsamples = 25\nvalue = [0, 23, 2]\nclass = versicolor", fillcolor="#39e581e9"] ;
51 -> 52 ;
53 [label="petallen <= 59.0\ngini = 0.2604\nsamples = 13\nvalue = [0, 11, 2]\nclass = versicolor", fillcolor="#39e581d1"] ;
52 -> 53 ;
54 [label="petalwid <= 42.75\ngini = 0.1653\nsamples = 11\nvalue = [0, 10, 1]\nclass = versicolor", fillcolor="#39e581e6"] ;
53 -> 54 ;
55 [label="gini = 0.32\nsamples = 5\nvalue = [0, 4, 1]\nclass = versicolor", fillcolor="#39e581bf"] ;
54 -> 55 ;
56 [label="gini = 0.0\nsamples = 6\nvalue = [0, 6, 0]\nclass = versicolor", fillcolor="#39e581ff"] ;
54 -> 56 ;
57 [label="petalwid <= 52.875\ngini = 0.5\nsamples = 2\nvalue = [0, 1, 1]\nclass = versicolor", fillcolor="#39e58100"] ;
53 -> 57 ;
58 [label="gini = 0.0\nsamples = 1\nvalue = [0, 1, 0]\nclass = versicolor", fillcolor="#39e581ff"] ;
57 -> 58 ;
59 [label="gini = 0.0\nsamples = 1\nvalue = [0, 0, 1]\nclass = virginica", fillcolor="#8139e5ff"] ;
57 -> 59 ;
60 [label="gini = 0.0\nsamples = 12\nvalue = [0, 12, 0]\nclass = versicolor", fillcolor="#39e581ff"] ;
52 -> 60 ;
61 [label="petalwid <= 42.0792\ngini = 0.5\nsamples = 2\nvalue = [1, 1, 0]\nclass = setosa", fillcolor="#e5813900"] ;
51 -> 61 ;
62 [label="gini = 0.0\nsamples = 1\nvalue = [0, 1, 0]\nclass = versicolor", fillcolor="#39e581ff"] ;
61 -> 62 ;
63 [label="gini = 0.0\nsamples = 1\nvalue = [1, 0, 0]\nclass = setosa", fillcolor="#e58139ff"] ;
61 -> 63 ;
64 [label="gini = 0.0\nsamples = 1\nvalue = [0, 0, 1]\nclass = virginica", fillcolor="#8139e5ff"] ;
50 -> 64 ;
65 [label="petallen <= 32.25\ngini = 0.2648\nsamples = 466\nvalue = [12, 395, 59]\nclass = versicolor", fillcolor="#39e581d3"] ;
27 -> 65 ;
66 [label="petalwid <= 7.8375\ngini = 0.3249\nsamples = 324\nvalue = [12, 261, 51]\nclass = versicolor", fillcolor="#39e581c4"] ;
65 -> 66 ;
67 [label="petalwid <= 7.5354\ngini = 0.4318\nsamples = 87\nvalue = [4, 62, 21]\nclass = versicolor", fillcolor="#39e5819e"] ;
66 -> 67 ;
68 [label="petalwid <= 5.2541\ngini = 0.294\nsamples = 46\nvalue = [1, 38, 7]\nclass = versicolor", fillcolor="#39e581cb"] ;
67 -> 68 ;
69 [label="petallen <= 19.5\ngini = 0.6667\nsamples = 3\nvalue = [1, 1, 1]\nclass = setosa", fillcolor="#e5813900"] ;
68 -> 69 ;
70 [label="gini = 0.0\nsamples = 1\nvalue = [0, 1, 0]\nclass = versicolor", fillcolor="#39e581ff"] ;
69 -> 70 ;
71 [label="petalwid <= 2.0062\ngini = 0.5\nsamples = 2\nvalue = [1, 0, 1]\nclass = setosa", fillcolor="#e5813900"] ;
69 -> 71 ;
72 [label="gini = 0.0\nsamples = 1\nvalue = [0, 0, 1]\nclass = virginica", fillcolor="#8139e5ff"] ;
71 -> 72 ;
73 [label="gini = 0.0\nsamples = 1\nvalue = [1, 0, 0]\nclass = setosa", fillcolor="#e58139ff"] ;
71 -> 73 ;
74 [label="petalwid <= 7.2396\ngini = 0.2401\nsamples = 43\nvalue = [0, 37, 6]\nclass = versicolor", fillcolor="#39e581d6"] ;
68 -> 74 ;
75 [label="petallen <= 19.5\ngini = 0.3047\nsamples = 32\nvalue = [0, 26, 6]\nclass = versicolor", fillcolor="#39e581c4"] ;
74 -> 75 ;
76 [label="gini = 0.0\nsamples = 7\nvalue = [0, 7, 0]\nclass = versicolor", fillcolor="#39e581ff"] ;
75 -> 76 ;
77 [label="gini = 0.3648\nsamples = 25\nvalue = [0, 19, 6]\nclass = versicolor", fillcolor="#39e581ae"] ;
75 -> 77 ;
78 [label="gini = 0.0\nsamples = 11\nvalue = [0, 11, 0]\nclass = versicolor", fillcolor="#39e581ff"] ;
74 -> 78 ;
79 [label="petallen <= 20.0\ngini = 0.5354\nsamples = 41\nvalue = [3, 24, 14]\nclass = versicolor", fillcolor="#39e5815e"] ;
67 -> 79 ;
80 [label="petalwid <= 7.7625\ngini = 0.2449\nsamples = 7\nvalue = [1, 6, 0]\nclass = versicolor", fillcolor="#39e581d4"] ;
79 -> 80 ;
81 [label="petallen <= 18.5\ngini = 0.4444\nsamples = 3\nvalue = [1, 2, 0]\nclass = versicolor", fillcolor="#39e5817f"] ;
80 -> 81 ;
82 [label="gini = 0.5\nsamples = 2\nvalue = [1, 1, 0]\nclass = setosa", fillcolor="#e5813900"] ;
81 -> 82 ;
83 [label="gini = 0.0\nsamples = 1\nvalue = [0, 1, 0]\nclass = versicolor", fillcolor="#39e581ff"] ;
81 -> 83 ;
84 [label="gini = 0.0\nsamples = 4\nvalue = [0, 4, 0]\nclass = versicolor", fillcolor="#39e581ff"] ;
80 -> 84 ;
85 [label="petalwid <= 7.6146\ngini = 0.5467\nsamples = 34\nvalue = [2, 18, 14]\nclass = versicolor", fillcolor="#39e58133"] ;
79 -> 85 ;
86 [label="gini = 0.0\nsamples = 2\nvalue = [0, 0, 2]\nclass = virginica", fillcolor="#8139e5ff"] ;
85 -> 86 ;
87 [label="petalwid <= 7.7625\ngini = 0.5391\nsamples = 32\nvalue = [2, 18, 12]\nclass = versicolor", fillcolor="#39e5814c"] ;
85 -> 87 ;
88 [label="gini = 0.3457\nsamples = 9\nvalue = [0, 7, 2]\nclass = versicolor", fillcolor="#39e581b6"] ;
87 -> 88 ;
89 [label="gini = 0.5747\nsamples = 23\nvalue = [2, 11, 10]\nclass = versicolor", fillcolor="#39e58114"] ;
87 -> 89 ;
90 [label="petallen <= 28.75\ngini = 0.2778\nsamples = 237\nvalue = [8, 199, 30]\nclass = versicolor", fillcolor="#39e581d0"] ;
66 -> 90 ;
91 [label="petalwid <= 7.9104\ngini = 0.2237\nsamples = 185\nvalue = [6, 162, 17]\nclass = versicolor", fillcolor="#39e581dc"] ;
90 -> 91 ;
92 [label="petallen <= 25.5\ngini = 0.0624\nsamples = 31\nvalue = [1, 30, 0]\nclass = versicolor", fillcolor="#39e581f6"] ;
91 -> 92 ;
93 [label="gini = 0.0\nsamples = 19\nvalue = [0, 19, 0]\nclass = versicolor", fillcolor="#39e581ff"] ;
92 -> 93 ;
94 [label="petallen <= 26.5\ngini = 0.1528\nsamples = 12\nvalue = [1, 11, 0]\nclass = versicolor", fillcolor="#39e581e8"] ;
92 -> 94 ;
95 [label="gini = 0.2778\nsamples = 6\nvalue = [1, 5, 0]\nclass = versicolor", fillcolor="#39e581cc"] ;
94 -> 95 ;
96 [label="gini = 0.0\nsamples = 6\nvalue = [0, 6, 0]\nclass = versicolor", fillcolor="#39e581ff"] ;
94 -> 96 ;
97 [label="petalwid <= 11.3708\ngini = 0.2521\nsamples = 154\nvalue = [5, 132, 17]\nclass = versicolor", fillcolor="#39e581d6"] ;
91 -> 97 ;
98 [label="petallen <= 15.0\ngini = 0.3642\nsamples = 72\nvalue = [4, 56, 12]\nclass = versicolor", fillcolor="#39e581bb"] ;
97 -> 98 ;
99 [label="gini = 0.0\nsamples = 2\nvalue = [0, 0, 2]\nclass = virginica", fillcolor="#8139e5ff"] ;
98 -> 99 ;
100 [label="gini = 0.3363\nsamples = 70\nvalue = [4, 56, 10]\nclass = versicolor", fillcolor="#39e581c4"] ;
98 -> 100 ;
101 [label="petallen <= 25.5\ngini = 0.1371\nsamples = 82\nvalue = [1, 76, 5]\nclass = versicolor", fillcolor="#39e581eb"] ;
97 -> 101 ;
102 [label="gini = 0.0655\nsamples = 59\nvalue = [0, 57, 2]\nclass = versicolor", fillcolor="#39e581f6"] ;
101 -> 102 ;
103 [label="gini = 0.2987\nsamples = 23\nvalue = [1, 19, 3]\nclass = versicolor", fillcolor="#39e581cc"] ;
101 -> 103 ;
104 [label="petalwid <= 46.75\ngini = 0.4297\nsamples = 52\nvalue = [2, 37, 13]\nclass = versicolor", fillcolor="#39e5819d"] ;
90 -> 104 ;
105 [label="petalwid <= 10.0\ngini = 0.3998\nsamples = 49\nvalue = [1, 36, 12]\nclass = versicolor", fillcolor="#39e581a5"] ;
104 -> 105 ;
106 [label="petalwid <= 9.4916\ngini = 0.4444\nsamples = 21\nvalue = [0, 14, 7]\nclass = versicolor", fillcolor="#39e5817f"] ;
105 -> 106 ;
107 [label="gini = 0.3878\nsamples = 19\nvalue = [0, 14, 5]\nclass = versicolor", fillcolor="#39e581a4"] ;
106 -> 107 ;
108 [label="gini = 0.0\nsamples = 2\nvalue = [0, 0, 2]\nclass = virginica", fillcolor="#8139e5ff"] ;
106 -> 108 ;
109 [label="petalwid <= 11.6187\ngini = 0.3495\nsamples = 28\nvalue = [1, 22, 5]\nclass = versicolor", fillcolor="#39e581bc"] ;
105 -> 109 ;
110 [label="gini = 0.0\nsamples = 4\nvalue = [0, 4, 0]\nclass = versicolor", fillcolor="#39e581ff"] ;
109 -> 110 ;
111 [label="gini = 0.3924\nsamples = 24\nvalue = [1, 18, 5]\nclass = versicolor", fillcolor="#39e581ae"] ;
109 -> 111 ;
112 [label="sepallen <= 2.5\ngini = 0.6667\nsamples = 3\nvalue = [1, 1, 1]\nclass = setosa", fillcolor="#e5813900"] ;
104 -> 112 ;
113 [label="gini = 0.0\nsamples = 1\nvalue = [0, 1, 0]\nclass = versicolor", fillcolor="#39e581ff"] ;
112 -> 113 ;
114 [label="gini = 0.5\nsamples = 2\nvalue = [1, 0, 1]\nclass = setosa", fillcolor="#e5813900"] ;
112 -> 114 ;
115 [label="petalwid <= 7.9104\ngini = 0.1063\nsamples = 142\nvalue = [0, 134, 8]\nclass = versicolor", fillcolor="#39e581f0"] ;
65 -> 115 ;
116 [label="gini = 0.0\nsamples = 40\nvalue = [0, 40, 0]\nclass = versicolor", fillcolor="#39e581ff"] ;
115 -> 116 ;
117 [label="petalwid <= 7.9875\ngini = 0.1446\nsamples = 102\nvalue = [0, 94, 8]\nclass = versicolor", fillcolor="#39e581e9"] ;
115 -> 117 ;
118 [label="petallen <= 38.0\ngini = 0.5\nsamples = 4\nvalue = [0, 2, 2]\nclass = versicolor", fillcolor="#39e58100"] ;
117 -> 118 ;
119 [label="gini = 0.0\nsamples = 1\nvalue = [0, 1, 0]\nclass = versicolor", fillcolor="#39e581ff"] ;
118 -> 119 ;
120 [label="petallen <= 41.5\ngini = 0.4444\nsamples = 3\nvalue = [0, 1, 2]\nclass = virginica", fillcolor="#8139e57f"] ;
118 -> 120 ;
121 [label="gini = 0.5\nsamples = 2\nvalue = [0, 1, 1]\nclass = versicolor", fillcolor="#39e58100"] ;
120 -> 121 ;
122 [label="gini = 0.0\nsamples = 1\nvalue = [0, 0, 1]\nclass = virginica", fillcolor="#8139e5ff"] ;
120 -> 122 ;
123 [label="petalwid <= 18.9625\ngini = 0.115\nsamples = 98\nvalue = [0, 92, 6]\nclass = versicolor", fillcolor="#39e581ee"] ;
117 -> 123 ;
124 [label="petalwid <= 16.75\ngini = 0.1631\nsamples = 67\nvalue = [0, 61, 6]\nclass = versicolor", fillcolor="#39e581e6"] ;
123 -> 124 ;
125 [label="petallen <= 61.5\ngini = 0.14\nsamples = 66\nvalue = [0, 61, 5]\nclass = versicolor", fillcolor="#39e581ea"] ;
124 -> 125 ;
126 [label="gini = 0.1207\nsamples = 62\nvalue = [0, 58, 4]\nclass = versicolor", fillcolor="#39e581ed"] ;
125 -> 126 ;
127 [label="gini = 0.375\nsamples = 4\nvalue = [0, 3, 1]\nclass = versicolor", fillcolor="#39e581aa"] ;
125 -> 127 ;
128 [label="gini = 0.0\nsamples = 1\nvalue = [0, 0, 1]\nclass = virginica", fillcolor="#8139e5ff"] ;
124 -> 128 ;
129 [label="gini = 0.0\nsamples = 31\nvalue = [0, 31, 0]\nclass = versicolor", fillcolor="#39e581ff"] ;
123 -> 129 ;
130 [label="sepallen <= 2.5\ngini = 0.4049\nsamples = 388\nvalue = [10, 94, 284]\nclass = virginica", fillcolor="#8139e5a5"] ;
0 -> 130 [labeldistance=2.5, labelangle=-45, headlabel="False"] ;
131 [label="petalwid <= 26.125\ngini = 0.1877\nsamples = 236\nvalue = [10, 14, 212]\nclass = virginica", fillcolor="#8139e5e3"] ;
130 -> 131 ;
132 [label="petallen <= 56.0\ngini = 0.3478\nsamples = 77\nvalue = [5, 11, 61]\nclass = virginica", fillcolor="#8139e5c1"] ;
131 -> 132 ;
133 [label="petalwid <= 12.825\ngini = 0.3196\nsamples = 75\nvalue = [5, 9, 61]\nclass = virginica", fillcolor="#8139e5c9"] ;
132 -> 133 ;
134 [label="gini = 0.0\nsamples = 11\nvalue = [0, 0, 11]\nclass = virginica", fillcolor="#8139e5ff"] ;
133 -> 134 ;
135 [label="petallen <= 44.5\ngini = 0.3638\nsamples = 64\nvalue = [5, 9, 50]\nclass = virginica", fillcolor="#8139e5be"] ;
133 -> 135 ;
136 [label="petallen <= 43.0\ngini = 0.3983\nsamples = 57\nvalue = [5, 9, 43]\nclass = virginica", fillcolor="#8139e5b5"] ;
135 -> 136 ;
137 [label="petalwid <= 22.0\ngini = 0.382\nsamples = 56\nvalue = [5, 8, 43]\nclass = virginica", fillcolor="#8139e5ba"] ;
136 -> 137 ;
138 [label="petallen <= 12.5\ngini = 0.4567\nsamples = 34\nvalue = [4, 6, 24]\nclass = virginica", fillcolor="#8139e5a4"] ;
137 -> 138 ;
139 [label="gini = 0.0\nsamples = 1\nvalue = [1, 0, 0]\nclass = setosa", fillcolor="#e58139ff"] ;
138 -> 139 ;
140 [label="gini = 0.4298\nsamples = 33\nvalue = [3, 6, 24]\nclass = virginica", fillcolor="#8139e5aa"] ;
138 -> 140 ;
141 [label="petallen <= 25.5\ngini = 0.2438\nsamples = 22\nvalue = [1, 2, 19]\nclass = virginica", fillcolor="#8139e5d9"] ;
137 -> 141 ;
142 [label="gini = 0.0\nsamples = 10\nvalue = [0, 0, 10]\nclass = virginica", fillcolor="#8139e5ff"] ;
141 -> 142 ;
143 [label="gini = 0.4028\nsamples = 12\nvalue = [1, 2, 9]\nclass = virginica", fillcolor="#8139e5b2"] ;
141 -> 143 ;
144 [label="gini = 0.0\nsamples = 1\nvalue = [0, 1, 0]\nclass = versicolor", fillcolor="#39e581ff"] ;
136 -> 144 ;
145 [label="gini = 0.0\nsamples = 7\nvalue = [0, 0, 7]\nclass = virginica", fillcolor="#8139e5ff"] ;
135 -> 145 ;
146 [label="gini = 0.0\nsamples = 2\nvalue = [0, 2, 0]\nclass = versicolor", fillcolor="#39e581ff"] ;
132 -> 146 ;
147 [label="petallen <= 62.5\ngini = 0.0968\nsamples = 159\nvalue = [5, 3, 151]\nclass = virginica", fillcolor="#8139e5f2"] ;
131 -> 147 ;
148 [label="petallen <= 2.5\ngini = 0.0756\nsamples = 154\nvalue = [4, 2, 148]\nclass = virginica", fillcolor="#8139e5f5"] ;
147 -> 148 ;
149 [label="sepallen <= 1.5\ngini = 0.4444\nsamples = 3\nvalue = [1, 0, 2]\nclass = virginica", fillcolor="#8139e57f"] ;
148 -> 149 ;
150 [label="gini = 0.0\nsamples = 1\nvalue = [1, 0, 0]\nclass = setosa", fillcolor="#e58139ff"] ;
149 -> 150 ;
151 [label="gini = 0.0\nsamples = 2\nvalue = [0, 0, 2]\nclass = virginica", fillcolor="#8139e5ff"] ;
149 -> 151 ;
152 [label="petalwid <= 32.0896\ngini = 0.0646\nsamples = 151\nvalue = [3, 2, 146]\nclass = virginica", fillcolor="#8139e5f6"] ;
148 -> 152 ;
153 [label="petalwid <= 31.3396\ngini = 0.1588\nsamples = 23\nvalue = [0, 2, 21]\nclass = virginica", fillcolor="#8139e5e7"] ;
152 -> 153 ;
154 [label="petallen <= 47.5\ngini = 0.0868\nsamples = 22\nvalue = [0, 1, 21]\nclass = virginica", fillcolor="#8139e5f3"] ;
153 -> 154 ;
155 [label="gini = 0.0\nsamples = 18\nvalue = [0, 0, 18]\nclass = virginica", fillcolor="#8139e5ff"] ;
154 -> 155 ;
156 [label="petallen <= 51.5\ngini = 0.375\nsamples = 4\nvalue = [0, 1, 3]\nclass = virginica", fillcolor="#8139e5aa"] ;
154 -> 156 ;
157 [label="gini = 0.0\nsamples = 1\nvalue = [0, 1, 0]\nclass = versicolor", fillcolor="#39e581ff"] ;
156 -> 157 ;
158 [label="gini = 0.0\nsamples = 3\nvalue = [0, 0, 3]\nclass = virginica", fillcolor="#8139e5ff"] ;
156 -> 158 ;
159 [label="gini = 0.0\nsamples = 1\nvalue = [0, 1, 0]\nclass = versicolor", fillcolor="#39e581ff"] ;
153 -> 159 ;
160 [label="petalwid <= 149.0354\ngini = 0.0458\nsamples = 128\nvalue = [3, 0, 125]\nclass = virginica", fillcolor="#8139e5f9"] ;
152 -> 160 ;
161 [label="petallen <= 52.5\ngini = 0.0204\nsamples = 97\nvalue = [1, 0, 96]\nclass = virginica", fillcolor="#8139e5fc"] ;
160 -> 161 ;
162 [label="gini = 0.0\nsamples = 86\nvalue = [0, 0, 86]\nclass = virginica", fillcolor="#8139e5ff"] ;
161 -> 162 ;
163 [label="petallen <= 53.5\ngini = 0.1653\nsamples = 11\nvalue = [1, 0, 10]\nclass = virginica", fillcolor="#8139e5e6"] ;
161 -> 163 ;
164 [label="gini = 0.0\nsamples = 1\nvalue = [1, 0, 0]\nclass = setosa", fillcolor="#e58139ff"] ;
163 -> 164 ;
165 [label="gini = 0.0\nsamples = 10\nvalue = [0, 0, 10]\nclass = virginica", fillcolor="#8139e5ff"] ;
163 -> 165 ;
166 [label="petalwid <= 152.5063\ngini = 0.1207\nsamples = 31\nvalue = [2, 0, 29]\nclass = virginica", fillcolor="#8139e5ed"] ;
160 -> 166 ;
167 [label="petallen <= 23.5\ngini = 0.4444\nsamples = 3\nvalue = [1, 0, 2]\nclass = virginica", fillcolor="#8139e57f"] ;
166 -> 167 ;
168 [label="gini = 0.0\nsamples = 1\nvalue = [0, 0, 1]\nclass = virginica", fillcolor="#8139e5ff"] ;
167 -> 168 ;
169 [label="gini = 0.5\nsamples = 2\nvalue = [1, 0, 1]\nclass = setosa", fillcolor="#e5813900"] ;
167 -> 169 ;
170 [label="petalwid <= 211.4187\ngini = 0.0689\nsamples = 28\nvalue = [1, 0, 27]\nclass = virginica", fillcolor="#8139e5f6"] ;
166 -> 170 ;
171 [label="gini = 0.1975\nsamples = 9\nvalue = [1, 0, 8]\nclass = virginica", fillcolor="#8139e5df"] ;
170 -> 171 ;
172 [label="gini = 0.0\nsamples = 19\nvalue = [0, 0, 19]\nclass = virginica", fillcolor="#8139e5ff"] ;
170 -> 172 ;
173 [label="petallen <= 63.5\ngini = 0.56\nsamples = 5\nvalue = [1, 1, 3]\nclass = virginica", fillcolor="#8139e57f"] ;
147 -> 173 ;
174 [label="petalwid <= 149.8687\ngini = 0.5\nsamples = 2\nvalue = [1, 1, 0]\nclass = setosa", fillcolor="#e5813900"] ;
173 -> 174 ;
175 [label="gini = 0.0\nsamples = 1\nvalue = [1, 0, 0]\nclass = setosa", fillcolor="#e58139ff"] ;
174 -> 175 ;
176 [label="gini = 0.0\nsamples = 1\nvalue = [0, 1, 0]\nclass = versicolor", fillcolor="#39e581ff"] ;
174 -> 176 ;
177 [label="gini = 0.0\nsamples = 3\nvalue = [0, 0, 3]\nclass = virginica", fillcolor="#8139e5ff"] ;
173 -> 177 ;
178 [label="petalwid <= 23.0875\ngini = 0.4986\nsamples = 152\nvalue = [0, 80, 72]\nclass = versicolor", fillcolor="#39e58119"] ;
130 -> 178 ;
179 [label="petalwid <= 7.7291\ngini = 0.4976\nsamples = 131\nvalue = [0, 61, 70]\nclass = virginica", fillcolor="#8139e521"] ;
178 -> 179 ;
180 [label="petalwid <= 6.85\ngini = 0.3047\nsamples = 16\nvalue = [0, 3, 13]\nclass = virginica", fillcolor="#8139e5c4"] ;
179 -> 180 ;
181 [label="gini = 0.0\nsamples = 1\nvalue = [0, 1, 0]\nclass = versicolor", fillcolor="#39e581ff"] ;
180 -> 181 ;
182 [label="petalwid <= 7.2667\ngini = 0.2311\nsamples = 15\nvalue = [0, 2, 13]\nclass = virginica", fillcolor="#8139e5d8"] ;
180 -> 182 ;
183 [label="gini = 0.0\nsamples = 8\nvalue = [0, 0, 8]\nclass = virginica", fillcolor="#8139e5ff"] ;
182 -> 183 ;
184 [label="petalwid <= 7.3896\ngini = 0.4082\nsamples = 7\nvalue = [0, 2, 5]\nclass = virginica", fillcolor="#8139e599"] ;
182 -> 184 ;
185 [label="gini = 0.0\nsamples = 1\nvalue = [0, 1, 0]\nclass = versicolor", fillcolor="#39e581ff"] ;
184 -> 185 ;
186 [label="petallen <= 26.5\ngini = 0.2778\nsamples = 6\nvalue = [0, 1, 5]\nclass = virginica", fillcolor="#8139e5cc"] ;
184 -> 186 ;
187 [label="gini = 0.0\nsamples = 5\nvalue = [0, 0, 5]\nclass = virginica", fillcolor="#8139e5ff"] ;
186 -> 187 ;
188 [label="gini = 0.0\nsamples = 1\nvalue = [0, 1, 0]\nclass = versicolor", fillcolor="#39e581ff"] ;
186 -> 188 ;
189 [label="petallen <= 16.5\ngini = 0.5\nsamples = 115\nvalue = [0, 58, 57]\nclass = versicolor", fillcolor="#39e58104"] ;
179 -> 189 ;
190 [label="petallen <= 14.75\ngini = 0.4362\nsamples = 28\nvalue = [0, 9, 19]\nclass = virginica", fillcolor="#8139e586"] ;
189 -> 190 ;
191 [label="petalwid <= 10.7979\ngini = 0.4764\nsamples = 23\nvalue = [0, 9, 14]\nclass = virginica", fillcolor="#8139e55b"] ;
190 -> 191 ;
192 [label="gini = 0.0\nsamples = 2\nvalue = [0, 2, 0]\nclass = versicolor", fillcolor="#39e581ff"] ;
191 -> 192 ;
193 [label="petalwid <= 19.7354\ngini = 0.4444\nsamples = 21\nvalue = [0, 7, 14]\nclass = virginica", fillcolor="#8139e57f"] ;
191 -> 193 ;
194 [label="petallen <= 14.25\ngini = 0.375\nsamples = 16\nvalue = [0, 4, 12]\nclass = virginica", fillcolor="#8139e5aa"] ;
193 -> 194 ;
195 [label="gini = 0.32\nsamples = 15\nvalue = [0, 3, 12]\nclass = virginica", fillcolor="#8139e5bf"] ;
194 -> 195 ;
196 [label="gini = 0.0\nsamples = 1\nvalue = [0, 1, 0]\nclass = versicolor", fillcolor="#39e581ff"] ;
194 -> 196 ;
197 [label="petallen <= 1.0833\ngini = 0.48\nsamples = 5\nvalue = [0, 3, 2]\nclass = versicolor", fillcolor="#39e58155"] ;
193 -> 197 ;
198 [label="gini = 0.0\nsamples = 1\nvalue = [0, 0, 1]\nclass = virginica", fillcolor="#8139e5ff"] ;
197 -> 198 ;
199 [label="gini = 0.375\nsamples = 4\nvalue = [0, 3, 1]\nclass = versicolor", fillcolor="#39e581aa"] ;
197 -> 199 ;
200 [label="gini = 0.0\nsamples = 5\nvalue = [0, 0, 5]\nclass = virginica", fillcolor="#8139e5ff"] ;
190 -> 200 ;
201 [label="petalwid <= 15.6459\ngini = 0.492\nsamples = 87\nvalue = [0, 49, 38]\nclass = versicolor", fillcolor="#39e58139"] ;
189 -> 201 ;
202 [label="petallen <= 27.5\ngini = 0.4723\nsamples = 68\nvalue = [0, 42, 26]\nclass = versicolor", fillcolor="#39e58161"] ;
201 -> 202 ;
203 [label="petalwid <= 14.1771\ngini = 0.499\nsamples = 44\nvalue = [0, 23, 21]\nclass = versicolor", fillcolor="#39e58116"] ;
202 -> 203 ;
204 [label="petallen <= 19.5\ngini = 0.5\nsamples = 42\nvalue = [0, 21, 21]\nclass = versicolor", fillcolor="#39e58100"] ;
203 -> 204 ;
205 [label="gini = 0.42\nsamples = 10\nvalue = [0, 3, 7]\nclass = virginica", fillcolor="#8139e592"] ;
204 -> 205 ;
206 [label="gini = 0.4922\nsamples = 32\nvalue = [0, 18, 14]\nclass = versicolor", fillcolor="#39e58139"] ;
204 -> 206 ;
207 [label="gini = 0.0\nsamples = 2\nvalue = [0, 2, 0]\nclass = versicolor", fillcolor="#39e581ff"] ;
203 -> 207 ;
208 [label="petalwid <= 8.6729\ngini = 0.3299\nsamples = 24\nvalue = [0, 19, 5]\nclass = versicolor", fillcolor="#39e581bc"] ;
202 -> 208 ;
209 [label="gini = 0.0\nsamples = 10\nvalue = [0, 10, 0]\nclass = versicolor", fillcolor="#39e581ff"] ;
208 -> 209 ;
210 [label="petallen <= 55.0\ngini = 0.4592\nsamples = 14\nvalue = [0, 9, 5]\nclass = versicolor", fillcolor="#39e58171"] ;
208 -> 210 ;
211 [label="gini = 0.426\nsamples = 13\nvalue = [0, 9, 4]\nclass = versicolor", fillcolor="#39e5818e"] ;
210 -> 211 ;
212 [label="gini = 0.0\nsamples = 1\nvalue = [0, 0, 1]\nclass = virginica", fillcolor="#8139e5ff"] ;
210 -> 212 ;
213 [label="petalwid <= 16.0\ngini = 0.4654\nsamples = 19\nvalue = [0, 7, 12]\nclass = virginica", fillcolor="#8139e56a"] ;
201 -> 213 ;
214 [label="gini = 0.0\nsamples = 4\nvalue = [0, 0, 4]\nclass = virginica", fillcolor="#8139e5ff"] ;
213 -> 214 ;
215 [label="petalwid <= 20.2313\ngini = 0.4978\nsamples = 15\nvalue = [0, 7, 8]\nclass = virginica", fillcolor="#8139e520"] ;
213 -> 215 ;
216 [label="petalwid <= 17.6\ngini = 0.48\nsamples = 10\nvalue = [0, 6, 4]\nclass = versicolor", fillcolor="#39e58155"] ;
215 -> 216 ;
217 [label="gini = 0.48\nsamples = 5\nvalue = [0, 2, 3]\nclass = virginica", fillcolor="#8139e555"] ;
216 -> 217 ;
218 [label="gini = 0.32\nsamples = 5\nvalue = [0, 4, 1]\nclass = versicolor", fillcolor="#39e581bf"] ;
216 -> 218 ;
219 [label="petallen <= 30.0\ngini = 0.32\nsamples = 5\nvalue = [0, 1, 4]\nclass = virginica", fillcolor="#8139e5bf"] ;
215 -> 219 ;
220 [label="gini = 0.5\nsamples = 2\nvalue = [0, 1, 1]\nclass = versicolor", fillcolor="#39e58100"] ;
219 -> 220 ;
221 [label="gini = 0.0\nsamples = 3\nvalue = [0, 0, 3]\nclass = virginica", fillcolor="#8139e5ff"] ;
219 -> 221 ;
222 [label="petalwid <= 31.3312\ngini = 0.1723\nsamples = 21\nvalue = [0, 19, 2]\nclass = versicolor", fillcolor="#39e581e4"] ;
178 -> 222 ;
223 [label="gini = 0.0\nsamples = 11\nvalue = [0, 11, 0]\nclass = versicolor", fillcolor="#39e581ff"] ;
222 -> 223 ;
224 [label="petalwid <= 32.8812\ngini = 0.32\nsamples = 10\nvalue = [0, 8, 2]\nclass = versicolor", fillcolor="#39e581bf"] ;
222 -> 224 ;
225 [label="gini = 0.0\nsamples = 2\nvalue = [0, 0, 2]\nclass = virginica", fillcolor="#8139e5ff"] ;
224 -> 225 ;
226 [label="gini = 0.0\nsamples = 8\nvalue = [0, 8, 0]\nclass = versicolor", fillcolor="#39e581ff"] ;
224 -> 226 ;
{rank=same ; 0} ;
{rank=same ; 1; 130} ;
{rank=same ; 2; 27; 131; 178} ;
{rank=same ; 3; 10; 28; 65; 132; 147; 179; 222} ;
{rank=same ; 4; 11; 22; 29; 50; 66; 115; 133; 148; 173; 180; 189; 224} ;
{rank=same ; 5; 12; 15; 23; 30; 39; 51; 67; 90; 117; 135; 149; 152; 174; 182; 190; 201} ;
{rank=same ; 17; 31; 41; 52; 61; 68; 79; 91; 104; 118; 123; 136; 153; 160; 184; 191; 202; 213} ;
{rank=same ; 18; 32; 43; 53; 69; 74; 80; 85; 92; 97; 105; 112; 120; 124; 137; 154; 161; 166; 186; 193; 203; 208; 215} ;
{rank=same ; 34; 44; 47; 54; 57; 71; 75; 81; 87; 94; 98; 101; 106; 109; 125; 138; 141; 156; 163; 167; 170; 194; 197; 204; 210; 216; 219} ;
{rank=same ; 6; 7; 8; 9; 13; 14; 16; 19; 20; 21; 24; 25; 26; 33; 35; 36; 37; 38; 40; 42; 45; 46; 48; 49; 55; 56; 58; 59; 60; 62; 63; 64; 70; 72; 73; 76; 77; 78; 82; 83; 84; 86; 88; 89; 93; 95; 96; 99; 100; 102; 103; 107; 108; 110; 111; 113; 114; 116; 119; 121; 122; 126; 127; 128; 129; 134; 139; 140; 142; 143; 144; 145; 146; 150; 151; 155; 157; 158; 159; 162; 164; 165; 168; 169; 171; 172; 175; 176; 177; 181; 183; 185; 187; 188; 192; 195; 196; 198; 199; 200; 205; 206; 207; 209; 211; 212; 214; 217; 218; 220; 221; 223; 225; 226} ;
}